{"levels":[{"inputs":[0,0,0,0.1898009356351501,0.6011548517583927],"outputs":[1,1,1,0,1,0],"biases":[-0.22953737590811343,0.045392490954098405,0.2278297320127172,0.2263399629713131,-0.2675441183236732,0.17060708813069497],"weights":[[0.28225745685948345,0.10466920894090584,-0.3530486459552905,0.549736547901736,-0.11174283782393246,0.0028040952106106465],[-0.10512459158136725,0.24341635366620867,0.14576889225263612,0.4358796460396865,0.05705818899473748,0.040633478576764456],[0.3998182858729019,-0.6030614762641261,-0.2503112464880303,0.4431165943786593,-0.37060992836733986,0.11624348169833809],[0.026230363162135013,-0.4735955121344405,0.7648647705191743,-0.6024560409591391,0.5688829096657579,0.4046727971951058],[0.23673952725936456,0.2888761440775652,0.14171691268389086,-0.24104084937715325,0.2800618180565415,-0.5613329609059373]]},{"inputs":[1,1,1,0,1,0],"outputs":[1,0,0,0],"biases":[-0.44408749777991186,-0.12625858628399586,-0.033877102267760695,-0.0415399935048445],"weights":[[0.24759935200681232,0.04554333599340693,-0.1358020134058986,-0.16913575463336905],[-0.3258476255343691,-0.5128979373105804,-0.0234669866733844,-0.6542423458305867],[-0.10118169708904567,0.19907146251024013,-0.2528333295274745,0.5212447031992891],[-0.0007983651519744765,-0.1348535112562263,0.40677075496018555,-0.09726808684505583],[0.3049310648340888,0.08136418659307833,-0.1310577434931211,0.10017123962546863],[-0.1500383913746389,0.0581847702337121,0.2578103355407261,-0.29766694527541965]]}]}