{"levels":[{"inputs":[0,0,0,0.16258647346356558,0.546795065228808],"outputs":[1,1,0,0,1,0],"biases":[-0.1997869518008149,-0.02026739768860711,0.26860141966574164,0.12424002117672835,-0.18935491944638738,0.059492237407805806],"weights":[[0.09582774089557958,0.46844855224184634,-0.23716975613551,0.11131834662150894,-0.29337040027500516,-0.03381610663791644],[-0.12056836149072613,0.3267508600790223,0.021217772661257774,0.11322773252432394,0.051211015118396964,0.0597210158870328],[0.30919657692844255,-0.21928563707571722,-0.1951380328267117,0.05243172891006468,-0.16539926359596346,-0.024013755674293882],[-0.03630602012753523,-0.2784066089851145,0.5303827176766706,-0.11064457541298123,0.1468466808941866,0.22684174832465892],[0.19193890514827613,0.07207748643329599,-0.01355318895665479,-0.03947321833335535,0.1685151346504733,-0.2533994425397776]]},{"inputs":[1,1,0,0,1,0],"outputs":[1,0,0,0],"biases":[-0.10938752824687897,-0.21534131087368452,0.15922350924506717,-0.023942668762764317],"weights":[[0.2852140095469735,-0.04925127214682766,-0.11021295774273576,-0.08193228876056137],[-0.0852122714208729,-0.23635636804753204,0.17179216221789903,-0.4306397524402602],[0.03374771399343398,0.20014424598943295,-0.13871910202284815,0.2902389765133023],[0.08332760966347791,-0.20267820818870902,0.3884466419991637,-0.26251999254778235],[-0.032863765489816774,0.058744171446917265,-0.1699012359747275,0.003921679216633611],[0.06962625912036247,0.294871086815752,0.08982873554206788,-0.14066948286678277]]}]}